980522 300
. -0.27040073 0.0840566 -1.8522998 0.49944597 -0.47183275 -1.0885348 0.2691173 0.28524676 0.0023139552 0.68952215 0.50725955 -0.08341417 0.9472167 0.2250121 -1.9835354 -0.43899602 0.16099903 1.0301284 -0.071213774 -0.07910749 1.830244 -0.63400406 -0.8449275 -0.39201048 -0.0063007623 0.37553877 0.1673775 -0.42540017 -0.69554764 -0.84398806 -0.07368127 -0.30284014 -0.8832597 0.7278805 2.9534192 -0.36024672 0.17405601 -0.4284183 0.64091724 -0.59630406 0.33623105 0.074754775 -0.12785614 0.8605289 0.33156756 0.1360958 -0.3330483 1.4634317 -2.0381446 0.29454353 -0.48718846 1.321866 -0.33589435 -0.06948058 -0.7549966 0.3090942 0.089739785 0.98800886 0.37905765 0.718498 -1.5234026 0.38443816 0.11224442 0.373819 0.1266688 -1.8239214 0.8459218 -0.25652394 -0.094447136 -0.99596614 -1.377403 0.7921074 0.11624196 -1.0867535 -0.9423383 0.82606745 -1.0343031 0.390361 0.20473504 0.7815607 0.7170013 1.068475 2.6025155 0.66326326 0.8068455 1.6195238 -0.72722644 -1.3627431 1.1567401 1.4749317 -1.7453227 1.3386663 -1.6920055 -0.6172761 -0.8594965 0.18301328 1.0916659 -1.2562313 0.24458423 -0.2951552 0.6871993 -0.74888116 2.084573 -2.311688 -0.23405994 0.4787942 0.6913618 -0.28706992 0.308207 -0.1131896 -0.3963327 -1.326038 2.1834972 0.9686413 0.26082495 -0.06030243 0.007029105 -0.21801823 1.3789324 -2.1105177 -2.375199 -0.94324046 -0.059579253 2.4082193 0.35012844 -1.3555375 -0.655986 -1.7768966 -0.44907054 -0.53348714 1.5412053 0.7244225 0.8636418 0.39502382 0.23834652 1.5233607 0.63900286 -0.9596422 0.08081685 1.2779999 0.017247 -0.33531672 -0.008149458 0.44263074 2.507353 1.4982021 0.09847764 1.0976046 0.60678643 -0.91493845 -0.7679124 2.0390773 -0.49779946 0.7420432 0.20978779 2.1520703 -0.5705582 0.36185822 -0.41356817 -0.24692878 0.14755416 0.9934118 -0.07571241 -1.2936382 0.63186777 -1.0735583 1.5324229 0.8669688 -0.64676666 0.57150793 -1.0921897 0.6083385 0.020407218 0.64765364 0.04174763 -0.49371395 0.5215792 1.5741038 -0.9040226 -1.3986043 1.0954373 1.014836 -0.17073362 0.0142370295 0.37950236 0.4594206 0.85465163 -1.8757143 2.0870154 0.76843506 -8.298266e-05 0.69045293 -2.489454 0.40175524 -0.519688 -0.35682365 -0.31385148 0.62275344 1.1567047 1.5927718 -1.2239602 0.4988947 0.008930476 0.01800845 0.47145286 -0.25521725 -1.0434779 0.86751586 -2.390801 0.003807245 1.3381493 -0.4338662 -1.2134957 1.2924173 -0.906611 0.035537466 0.79267067 -0.6835935 -0.53466827 -0.08057887 -0.0044052284 -0.12060617 -1.2043723 -2.2811987 -1.129288 -0.7657386 -0.2621089 0.43881026 1.3601725 -2.170208 0.87990856 -1.139293 1.4953253 0.3817973 -0.34022352 -1.7773843 -0.30245468 0.74256253 0.69561553 0.29068288 3.0335455 0.26488668 -1.7693903 0.4158617 -1.4654311 1.4410261 -1.08715 0.028324127 -1.7393374 -0.3923618 -1.3980718 1.0206661 -0.27100822 0.10988929 -0.8150243 0.44230413 0.8943125 2.972961 -0.30802444 -0.8379088 0.010734766 0.32081398 0.26255146 -0.3593808 -1.398656 0.389128 1.2791716 0.91862047 -0.16773231 -0.46617037 -0.875093 1.8808876 0.023438243 -1.1548247 0.12717874 0.9775625 2.7268293 -1.2374337 0.18373387 -0.6346298 -0.7451856 0.1928888 0.1375019 -1.0225718 0.8700531 2.1192863 -1.597127 -0.8727627 -0.33205724 -1.1430824 -0.42888063 0.89098173 -0.08786351 -0.56349254 0.6379045 -0.35595736 -0.0037150693 1.5710846 1.1764549 -1.2126248
</s> 0.60053164 -1.8262275 1.6537955 -1.0790042 -0.26502654 0.6399603 1.069011 0.4806835 -1.9595044 -1.1507746 0.35284173 1.3753259 -0.6245144 1.763547 0.0020814836 -0.35178822 0.07292039 1.4038141 0.714006 1.6166254 0.5323057 -0.7393098 1.095919 0.95607877 -1.4052538 -0.3134135 -0.29243374 -0.45386457 -0.30107683 0.29297853 0.34791997 -1.133666 -1.2080384 0.99521255 -0.46490717 -0.08966885 -1.0158372 -2.3678563 0.094954394 0.071481936 0.23287289 -1.3638206 -0.98096603 0.50303876 -0.57162493 0.4210905 0.28790984 -0.2563674 0.092035 0.5246664 -0.6192129 -2.5853932 0.25734866 0.6424708 -0.900691 -0.8080604 -1.7010614 0.12640935 0.11472595 -0.6119799 -2.6819403 1.593254 -0.7851469 -0.52520084 -0.43796468 -1.3978257 -0.6530868 0.13597187 -1.1022133 0.824891 0.2987865 1.5219034 -0.12755643 -1.0333644 0.2401959 -0.44527096 1.171628 0.099780865 -0.8796306 -0.87845504 0.7868729 0.6904528 0.8902342 -2.0956006 2.1077907 1.3568597 -0.17851214 0.73657584 1.1967643 0.62221456 -0.7642912 0.39222008 -0.7962893 -0.046757836 -0.28898183 0.06701589 2.8187966 0.030140873 0.45299888 -1.3072617 0.4953124 -2.1735535 1.0698128 0.06515973 -0.7731947 0.76170236 -0.87302953 -0.7142834 0.29144645 -0.07024085 -0.36303586 -1.0684496 1.5153342 0.37013075 -0.73758745 -1.8559512 0.4095921 0.82610404 -0.63003105 0.7233913 -0.9711334 -0.96473813 -0.13326843 0.5367835 0.7191191 -2.2633686 0.32441074 0.84245455 2.527735 1.8376467 -1.636592 0.23399973 -0.20049454 0.023417132 0.46143422 -0.02695048 0.8699547 -0.8766016 1.7616606 0.024476176 0.782284 0.6077184 0.525842 0.2919324 2.4979384 0.20132343 -0.45881003 1.2084571 -0.37594858 -0.04210889 0.8311535 -0.43829286 -1.4096228 -1.0138224 -0.32595 -1.4179013 -0.94583803 1.2640518 -0.47371328 -0.8456831 0.95199996 1.4978961 0.9167996 -0.56253463 1.1435368 1.1063578 0.46323505 -0.23004305 -2.410122 0.13036291 -0.35165322 -0.5054162 -0.0881239 1.7247944 -0.38791558 0.058207832 -0.62645304 -0.9652332 1.3552339 0.84130406 0.32781747 0.5074847 -1.7578324 -1.7797456 -1.2936502 0.921622 -0.060918365 0.0021087376 0.41289863 -0.30785447 1.4765007 -0.761895 -2.0937195 0.5664481 -0.72739726 0.4063005 0.4413705 1.1767114 0.024519604 -0.3240703 -0.29043612 -2.3780026 -0.33735704 -0.25318483 -0.28782085 -0.00784034 -0.2549698 -1.856341 0.70165366 0.78177375 1.5818542 0.2672429 0.25780728 -0.13913766 0.29418567 -0.067561515 -0.40713644 -0.8625658 -1.3944539 0.15723544 -0.36355636 1.3866838 -1.4114234 -1.085884 0.8180791 -0.16102387 1.4282238 1.044419 1.1042985 -1.0105392 0.8826352 0.43792588 -1.6163974 0.9046459 0.7524797 -1.3277746 -0.046825558 2.7120922 0.27732483 1.1401721 -0.23197156 1.0797644 -2.027766 1.2053385 0.85990846 -0.4884867 -1.5511205 -2.3277254 -1.2782084 -0.73876774 0.059976898 -0.49393517 0.24713822 0.57190704 1.0672618 0.42144534 -1.4231488 1.8403804 -1.1042854 -2.162932 0.4614211 -1.054915 0.3650959 0.40251648 -0.18270792 -0.7017085 -1.3608553 -1.9534031 0.58223015 1.019001 -1.2406192 0.51723003 0.61023426 -0.7391232 2.0733845 0.43935952 0.3806519 -0.7282673 -0.058593903 0.017771842 -0.81665456 -2.954597 -1.7495755 1.3851686 0.2927725 1.6959488 -0.60375154 -0.72679627 -0.36481196 -0.82591385 0.5746446 -1.3813167 0.16599664 -0.25998676 0.27619252 -0.8825023 -2.3168724 1.8285381 0.98958296 -0.08755848
, -1.8297637 -0.20299472 -1.0537088 0.45967007 1.0427986 -1.746083 -0.26183796 -0.09959365 0.015263539 -0.52953255 1.1511811 0.8738705 1.0125582 -0.04248142 -0.19836244 0.90293086 0.73807615 2.4763107 1.1496115 0.82887375 0.42292508 -0.7047785 1.608478 0.4937987 0.40612802 -0.4901123 -0.20571768 0.11887152 -1.2506243 -0.6662356 0.7692879 -0.21919745 -0.6200879 0.21923175 -0.68696 0.21636659 2.540137 -0.74666846 -0.2244432 0.34414744 0.1956263 -0.85681415 1.336482 -0.08274505 0.512821 0.9293915 1.0509695 -0.5826455 -0.5605098 -1.4006398 0.89737016 0.10108862 -0.30213788 -0.69824046 0.13398144 0.088977225 0.38617432 0.5641159 -0.5524981 -0.063887976 -0.84978575 0.19357868 -0.26272336 0.4160554 -0.93553096 -1.3793309 -0.5737893 -0.9104528 -0.03823039 0.39616793 1.0217663 0.49419194 0.4784712 0.58348656 -1.7261335 -0.4783159 0.407145 -0.49828342 1.676691 -0.087856 0.83181745 -0.39601037 0.6877206 -0.69475645 0.14864181 0.35965756 0.24183205 0.059558548 1.1158079 -0.13618682 -0.71969175 1.1140887 -0.19909608 0.18827331 -1.0158715 -0.18917243 -0.55549973 -0.38835 1.4270726 -1.9745644 1.9838781 -0.56596 2.0968356 0.34330088 -1.3089346 -1.0606761 -0.25639182 -1.3764182 -1.0153515 -0.39239845 1.3042613 -2.133007 1.2912498 -1.0433301 -2.0038207 -0.5145737 -0.18581016 0.25134125 0.55858105 -0.3488374 -0.5117629 0.7159734 -0.077987 0.08686709 -0.47379482 -0.04622189 0.9021799 -1.034183 0.5454481 -0.1289092 -1.0657552 1.2360877 -1.5299324 -0.027453642 -0.6937097 2.2251823 1.2775481 -0.4433142 1.9627974 0.22540498 1.3110791 0.88525885 0.92815846 -0.31525937 1.5419531 1.3649913 1.9134517 -0.6874925 0.41699457 1.7096317 0.71461076 -1.4513183 0.04002516 0.7996058 0.28597963 1.1785443 -0.0796629 0.9002164 1.1518356 -1.0328552 0.6083071 -1.388845 -1.5588378 0.91347885 0.34158355 0.41462776 -0.031594872 1.3175633 -1.6505333 1.5310601 -1.7245888 1.9888265 0.26457283 -0.64458996 1.1416148 1.0703428 -0.34221077 1.8135039 1.9888234 1.6691929 -0.44194412 1.9108417 -1.0752542 -0.2842755 1.1068581 0.475564 -0.39444306 -0.72204655 0.5788927 1.2806652 1.394984 0.16525394 -1.0122765 -0.29953778 1.1944985 2.1776724 1.8909756 -2.0762017 -0.40285847 0.2768901 -0.86907965 -0.45860967 -1.1633208 -1.5623302 0.10627703 -0.17819345 -1.161208 -0.60087 -0.4652056 2.1295943 0.5261566 -1.5376467 0.63401914 -0.3765193 0.9511027 -0.057254635 -0.25369763 -0.72176915 0.6250552 0.5909401 -0.72829735 1.5288421 0.5341201 0.13630678 -2.1961014 -0.7063961 -0.67813057 0.5176448 0.6808044 0.39377156 1.8420511 0.089558244 0.42350808 0.75711954 -1.6711731 -0.3238875 0.36609355 -0.24440187 -0.052270886 0.34021637 -0.28573567 -0.47494456 0.8442622 0.96598107 0.19114156 -0.3118954 -0.5980325 -1.5124905 -1.068946 0.89425033 -1.606231 2.1452088 -0.610511 -0.3386963 0.69311136 1.2293979 -0.41944218 0.0463453 -1.3894045 -0.5696848 -0.68950707 -0.72570217 -0.36817172 1.3354424 0.44467282 0.10549315 0.19287702 0.020279784 3.0552409 -0.36288804 -0.06725427 2.2167993 2.513083 1.6241093 0.92456454 -0.050676767 -0.2601799 -0.34900925 0.34498265 1.1458296 -0.9074441 0.45703214 -0.06595547 -0.08390426 0.8552568 -0.29070684 -1.1557126 -1.0912191 -0.534792 -0.36238524 -0.8230769 -0.19057369 1.642622 1.0472541 1.0615119 0.11915248 -1.4419273 0.3606273 0.3706911 -0.73709756
the -0.2839131 0.0796403 -0.64791894 -0.5684634 -0.24088378 -1.2504412 -1.7110301 -1.777395 0.37647924 -0.7052966 -0.077613555 -1.1176025 -0.3790404 1.1655194 -0.34949854 0.26781535 -1.0823814 1.0068355 -0.6109451 0.41826582 -0.39075217 -1.2293606 1.0015252 -0.0075012553 0.57857525 2.6537027 0.83772117 1.0402749 -2.2741597 -1.0948184 -0.9749682 -0.5444946 1.1611753 0.407616 0.00499285 -1.0862325 0.5913049 1.2357283 0.5753773 0.06386759 -2.0171454 -0.51005983 -0.66521686 -0.859056 -0.25924465 -1.2269394 -0.2945004 0.72605014 0.36739746 -1.3772618 -0.5204428 -0.66620296 0.83547044 -1.0893304 -0.08613779 -2.1910107 1.5064349 -2.3094034 0.94881886 -0.7675849 1.4280261 0.7136681 0.53332883 0.37321904 0.38587964 -0.6988731 1.2404182 -0.30460486 0.386674 0.17397054 -1.6997248 -1.3835374 -1.0701867 0.44485372 0.7767777 -2.315955 -0.2767277 -0.31768915 0.20878378 1.3776954 -1.5428442 0.90622747 -0.070596255 0.7436911 0.07350219 -0.680164 1.1717383 0.7194979 1.0147805 0.0499513 -0.46738437 0.83083165 0.009979813 0.50418913 2.0980346 -0.06883488 0.057285566 -0.32955667 1.0032859 -0.8545564 0.76764244 1.4627687 -0.31801167 0.07796687 -0.111766346 -0.955172 -0.26724038 -0.33864757 -0.34998566 -0.36615905 0.5278116 -0.35316393 -0.19736725 -1.1258781 -0.062954426 0.53647757 0.8891414 0.5733067 0.14349012 0.751548 -1.497828 -0.3669452 0.44584477 -1.4393935 -0.5001223 1.5119442 0.707294 2.427854 -0.4530911 0.31732073 1.1072308 -0.1726088 -0.017040988 1.9937595 -1.4975502 -1.8208019 -0.26403424 0.27140898 1.8597916 0.47341475 -0.12474221 1.1292939 1.5469874 0.4810627 0.7517955 -0.5180433 -0.0204179 1.1469098 1.0410641 0.19513468 -0.101584114 0.31114283 -0.7883477 0.7017413 0.3240598 0.94664645 0.8916504 -0.09751434 1.9313219 -0.6511786 2.044877 0.48156348 -1.8735732 1.1154602 -2.328112 -1.0265458 0.07085319 0.6365504 -1.6555414 0.39627025 -1.3245875 -0.44377896 0.19650908 2.233972 -0.62359846 -1.1427209 -0.5304096 0.41773367 -0.6416657 0.007983754 -0.042435434 1.0765384 -1.1562321 0.5041698 2.294772 0.9955909 -0.6636034 -1.9951519 -0.07058989 0.5903126 0.08260712 -0.011958959 0.72519326 -1.1248635 -0.478013 -1.5741545 -0.64827865 -0.23892578 1.8288759 -0.021187557 -0.43987665 0.42651305 -1.2211937 -0.419896 -0.81231713 1.0467318 -0.3474647 1.0835867 -1.3238676 -1.0081148 -0.1370411 -1.521448 -0.124868095 -1.3101648 -0.19639553 -0.461193 0.75392276 -0.12633482 -0.8716001 -0.5396527 -0.27825236 0.46992722 0.03307965 -0.47497672 0.6319963 -0.23231253 -1.1361398 0.9038864 0.40498477 2.1683254 -0.3543022 -1.1924893 2.4976144 0.7479162 -0.59825486 0.17327102 -0.24268764 -0.6110627 -0.36251912 -1.322812 -0.5707156 0.2861448 1.6722541 1.1478313 -0.5746442 0.64329475 1.6479486 0.27266607 -1.7803079 1.4719849 0.16342534 -0.14003474 2.976829 -1.5680455 0.84144425 0.48505613 -0.8625151 0.59164184 2.1034472 1.7548125 1.4572449 -0.34609687 -0.8455773 1.9904884 0.7697096 2.2541177 -0.7333654 0.00089893845 0.61939013 -0.3394233 -0.723688 1.1473178 -0.33299676 -1.2650483 0.7511073 0.52378815 0.89113206 0.9594348 -0.887829 -0.8610133 0.6721037 0.5868068 0.5555775 -1.5063312 -1.0037534 -0.28071153 0.4868804 1.1145518 0.99503833 -0.6732264 -1.4036245 0.46118182 -1.7915161 -0.2664784 -1.2592582 -0.5053866 1.1488315 -1.0694777 -0.28144354 1.1041176
and -0.9749655 -0.037351582 -0.18882205 -0.9286006 -0.69242465 -0.7198151 -1.1121897 -0.15998031 -1.3549111 0.87970334 1.2051235 -0.49971104 0.38903475 1.3193861 -0.05365518 -0.24446626 -0.94732606 1.8683876 1.6909512 1.7160054 1.3286011 -1.4413089 2.2091305 0.97548234 -0.5005927 -1.5454818 0.24794397 -0.22390683 -1.2189095 -1.1181464 0.40746078 -1.0627801 0.29656765 -0.299556 1.2214475 -0.5480365 0.709674 -1.1577665 0.15704785 1.7043419 1.018005 -1.3887624 1.4512982 0.3997608 -0.36091015 -1.3298367 -0.39652118 0.4783088 0.69225854 -0.46152157 -1.0406475 -0.61048424 0.2830113 -0.9534529 -0.7000721 1.1857208 -0.37077808 0.55359817 -0.16143458 0.13020997 1.1179992 0.9228868 -0.5401307 0.17777137 0.52862805 -0.036467273 0.6275702 -0.3791554 -0.33847615 0.60467666 -0.011140429 -0.16343087 -0.33735767 1.5058802 0.9069423 -1.0468262 0.0066995854 -1.6853054 1.72596 0.4978175 0.35401997 0.34039837 0.7395522 -0.25407022 0.99265635 0.09476053 0.582317 1.9858899 0.64254636 -0.972999 -2.1452968 1.6828268 -1.3185966 -0.0051369783 -0.24912015 -0.6869048 -0.979841 -0.81585705 1.3477396 -2.371727 0.7149791 -1.8492744 -0.53288895 1.349669 -0.44897988 -0.94161797 0.91985273 -1.4746478 0.08697516 -0.9401062 -0.13141899 -0.69182944 0.9581965 0.35450572 -1.2166557 0.3412827 0.60447174 0.33076763 0.7220636 0.2795587 -1.3859954 0.17639625 -0.45275703 -0.7306769 0.6760637 0.051552027 1.4295598 -1.7250249 1.5526817 -1.5664524 -0.13672487 -0.18471992 -0.9957744 0.5890108 -0.61459017 -0.1895463 1.0065186 0.02804951 2.306957 0.9863459 -0.59132636 0.54913133 1.3725822 -1.6207483 3.4773786 0.9739617 1.009269 0.30127358 0.17509064 -0.08899923 0.9142416 -0.42542392 1.3646986 -1.0843884 0.32655498 1.3286537 0.39896977 0.23540692 2.1615787 -1.7831165 1.4082676 -2.2897408 -1.9084034 0.61395484 1.3856926 -0.9500165 -0.14453639 1.0122561 -0.8205065 1.3852738 -2.2711353 1.3038471 1.6457715 -0.052122705 1.0643138 0.40398413 0.4741875 1.2091067 2.2527368 0.4463899 -0.85869855 0.9212946 -0.015848247 1.1951551 1.0239244 0.084004104 -1.3763075 0.12636338 -1.0148826 1.1618673 0.8110441 -0.41174176 -0.38272873 -0.19595625 1.231669 0.0034774477 0.8423935 -2.0476527 0.23945938 -0.20971602 -1.438399 -1.1837286 -0.35405272 -0.071899496 -0.38665798 -0.6548582 -0.61389 -0.28345174 0.025651885 0.4705796 -0.7695825 -0.025849344 0.966686 0.5432098 1.483133 -0.08144479 -1.7072369 1.6611984 -0.06573267 0.772908 0.00015007822 1.7643174 0.38245696 0.3194558 -1.2715123 0.24325272 0.29706305 -1.5340031 1.9148324 -0.4533546 0.7034809 -0.43200377 1.8334473 -0.28574327 0.31524274 0.57912683 0.30056134 0.45496112 -0.3402137 0.16072285 -0.29780182 -0.73084265 0.74445575 0.92094034 0.535614 -1.7045507 -0.3866015 -1.8830773 -2.8599331 0.6257448 -1.0262064 1.4180121 -0.26319888 0.083418615 -0.4820397 0.64168227 0.010318401 0.19725916 -0.24870369 0.050716117 0.16934364 0.17737044 -1.3591958 1.3438716 -0.11883848 0.82774657 -1.1059208 0.16740882 1.236861 2.3191597 -0.5641014 2.4076326 0.22064239 0.4896086 0.58116674 -0.8346226 -1.5002551 -0.47977182 0.33237758 -0.4321142 -1.1165738 0.67846465 -0.31579745 0.059854217 0.5992712 0.91678417 -0.7356705 -0.05378964 -0.7222538 -0.15310074 -0.59991676 -0.47427893 0.48169947 0.21040103 0.5364232 0.46628106 -0.113597706 2.6183155 0.4273582 -0.62344414
of -0.26574144 0.88466376 0.75945234 -0.14646918 0.069894336 0.71639675 -1.0649968 -0.9740526 -0.2720215 -0.35970962 2.2101097 0.6130886 -1.5032108 0.43079925 0.7201243 -0.08135501 0.0017382739 0.5396977 0.3058344 0.78589636 -0.6551586 -1.8504077 1.7242459 -0.11741563 -0.14213435 -0.9885 -0.75133866 0.7067907 -1.0422533 -1.5172058 0.40207416 -0.37130114 -0.33235294 2.8059537 0.113157086 1.3234943 -0.376847 -1.0022341 0.60665494 -0.8644915 0.79469436 0.027495835 -1.0959086 0.1848169 -0.828792 -2.2123158 0.06286105 1.9654218 -0.24368994 -2.4107435 -1.1618055 -0.36931655 0.5477206 -0.53150123 -1.8470697 0.6325222 -1.4963509 1.3962406 1.1766428 -0.9727568 0.8313352 0.97938013 -0.5385831 0.12723485 0.49704254 -0.98313147 -0.96168226 0.64518476 0.46641016 1.5814892 0.12653762 0.61979973 -0.76035243 0.085021 1.7545562 -1.4862053 1.3439922 -0.34584284 0.67853796 -0.6602508 -0.34665218 -0.5669042 1.4483074 0.35817957 -0.76284707 1.4814626 -0.42626426 0.5834385 0.55523884 -1.2325099 -2.2009006 0.19857296 0.49265856 0.55646807 0.23437992 0.52564085 -0.06978585 -1.2153665 0.48924512 -1.3023765 -0.11563949 0.106636785 0.13265276 -1.4237267 0.023798121 -0.9746458 -0.25947654 1.88183 0.13831441 0.7929393 -1.106492 -0.4471001 0.10728206 -1.3971411 -1.1025618 -0.87851596 0.18590482 -0.68440455 0.18857114 0.8016958 0.6489665 1.5559303 0.26189506 1.2562916 -0.91229934 1.9471132 1.2052852 -1.7570156 2.2837296 0.21891126 0.83569187 -0.9567908 -2.5488153 1.4187806 -1.1283082 -0.41320932 1.1062852 0.22267331 1.0072869 1.7417817 0.5139161 1.8471014 1.5217358 -0.64674324 1.1670083 -0.51129407 -1.4639418 -0.06898453 0.45906577 0.8464463 0.07138223 -0.37505025 0.15610912 -0.23452674 0.27079576 -1.6765331 0.51329774 0.4041467 -0.3111937 -0.08491399 0.7713107 -0.97207975 -0.46346334 -0.09875901 -0.44745657 -0.46812707 -0.34529772 -0.7571796 -0.26296332 1.4616557 -2.8592696 0.2550428 2.1495328 -0.56417644 1.0556725 0.7326175 1.580806 0.8921679 1.0557091 0.83614546 -0.9251198 1.5877377 0.30683145 0.40440574 -0.0086294925 1.3781544 -1.3249707 -0.86649734 0.19113205 -0.5113111 0.20207338 -0.7130304 -1.7934595 0.020031929 0.26144585 -1.6255565 0.45721996 -0.76146466 0.3696013 0.5079899 -0.94670343 -1.2079648 0.2781539 0.12930943 -0.29558656 -2.1082332 -0.98423994 -0.484475 -0.0558477 -0.09565113 -0.6846123 0.021632439 0.7264296 -0.7199371 0.81218565 -0.36143672 -1.7293652 0.5298638 0.21698438 -0.7133993 0.56080115 1.9116881 -0.53719777 0.13015376 -1.6870098 -0.48329338 -0.058047194 0.7563846 2.6006312 0.6064112 0.006848789 0.4364541 1.3371177 -0.84921074 -1.0593172 -0.6460246 -0.5814441 -0.019976502 1.5051327 -0.3030456 0.060583964 0.1902496 2.30403 1.9016216 -0.0814827 -0.5874125 -1.5235332 -1.0518271 -1.5420023 0.64692175 -1.9826916 0.67948616 0.39991432 2.519114 0.18370077 0.058298144 0.089707464 0.6687569 0.46677062 -0.43471497 1.5214534 -0.22173227 -0.9493946 1.765844 0.69960946 -0.053425804 -0.25760657 -2.0115309 2.204747 2.9958882 -0.7482496 0.7588633 0.19745722 0.10533113 -0.34673572 -2.389659 -2.1394582 -0.07937891 0.56289697 2.3183925 0.9195658 -0.12320529 1.2894499 -0.1769731 -0.17040688 0.64470464 -0.81460506 -0.98249066 -0.36056018 0.86475754 0.17801009 -0.48715675 -0.87461 0.08576235 0.6179568 -0.31059092 1.5399234 2.6216335 0.26178664 -0.24549502
@DIGITS -1.0162472 -1.4899251 -1.9707955 -0.760113 0.32498595 -1.8122287 -2.1343744 -0.96978194 0.8481696 0.7472691 0.0968126 0.6946378 -0.9134577 0.9988963 -0.10962457 1.5251206 0.43239653 -0.63417244 -0.4195049 0.012697209 -0.12921391 -0.4973018 -0.41325256 -0.29733428 0.22060283 -0.5660468 -0.4225889 -0.86968637 -0.39606944 1.0495547 0.012643345 2.3344996 -0.49160752 -0.62820256 1.035514 -1.3505572 0.72095156 -0.62752926 0.73401713 0.24726911 -0.34035745 1.2526987 -0.2484685 1.2826579 -1.5772524 -0.75607675 -0.8922936 -0.28476596 -1.111192 -0.3659757 -0.9893988 0.2217944 -1.3867093 0.5733213 0.59678596 -0.08257706 1.9208134 -2.2287254 0.4109904 -1.2768595 -0.022878163 1.162435 -0.97122604 0.96262354 0.64763707 0.5249807 -1.0397015 -0.50645334 -0.76584995 0.57923985 -0.49625653 0.40661594 -0.67010057 0.70488197 -1.1726463 -1.1233459 0.16868152 -0.7569434 1.079971 0.40436476 -2.113382 -0.24766102 0.76641434 -1.4204199 0.03889351 0.7001518 0.60889244 0.73204124 2.7757492 -0.42403957 0.5962018 0.5913138 -0.6512067 2.1502233 0.4780693 0.39335328 0.23838063 -1.609544 -0.22920899 0.83952004 0.5952298 -0.40814102 0.57020533 -1.9520885 -0.76485705 -0.28851515 0.017476944 -1.5048531 0.5633293 1.1278753 -0.44685337 -0.21014348 -0.5265389 -0.021832261 -1.1799387 -1.3741931 -0.08878241 -1.169381 0.088024855 0.3428178 -0.9396194 0.71255136 -1.3656785 1.1300098 0.06438437 -0.6525385 0.88354015 -1.525318 0.9866358 0.7661199 -1.1727866 1.1017903 0.8634945 0.7726872 0.3988893 -0.32709497 -0.7123747 0.86982167 -0.47205374 -0.9814794 0.3781862 0.42979085 -2.4116237 2.811457 0.767225 2.299522 -1.1665982 -1.0927668 -0.22042966 -1.4350657 -1.4803243 1.425296 0.67139786 0.3068578 -0.12938213 -0.35922104 -0.30202085 -1.0375301 0.9011971 -0.2513811 0.69226325 -0.8608291 0.19002627 -0.615489 0.62521046 -0.5841087 1.4310342 0.589582 -0.16199479 0.6964472 0.32886505 0.006402532 0.076753415 0.6628166 2.4577847 -2.109373 -0.11994759 -0.44551912 0.7289068 -0.6699631 -0.55304265 0.16528125 -0.54922384 -0.8050267 0.9980765 -1.0981692 0.20329595 -0.8539955 0.52431685 -0.7432663 -1.127399 0.8899642 0.45159036 0.6662698 -0.41881153 -0.35655344 -0.29781553 -0.50925165 -0.08207644 1.3455653 -0.9618539 -0.7122202 -1.1975441 -0.07454799 3.0452797 -0.010596734 1.1261894 -2.0524626 -2.2896352 1.4590405 2.1117487 -4.0431776 -0.53842086 1.2031995 0.39640445 0.06409183 -2.2883782 0.32245365 1.3009287 -0.9095827 -1.3248475 -0.83364034 -1.2444191 -1.0658017 -0.72461385 -0.68604714 -0.8654998 1.5755136 1.8782833 -0.5398478 -0.13514192 0.9585298 1.6789198 0.2560419 -0.9734466 1.3075948 -0.67338127 -1.4594544 0.16368149 2.5544505 -0.03933696 0.24620643 0.99958897 2.418373 0.7110116 1.3784353 0.6830916 1.0676806 -1.4212862 -1.0726036 1.037395 0.24902068 1.0047143 0.98719865 2.632439 -0.06619155 0.26149058 0.29596528 0.966012 2.2653646 0.71821475 -0.87394816 -2.654914 1.6623591 -0.087970644 0.7109139 -0.01574373 -1.5229033 -0.7774934 -1.2968477 0.97348046 1.1320437 1.6224799 -0.8824257 1.4240313 0.6209499 0.5252416 -0.92527646 0.042562205 1.7026647 1.3313494 -1.5245078 -0.13921458 -0.5109592 2.0026536 0.21819419 -1.6840615 -1.415265 -0.5306561 -0.7581879 -0.6756481 -0.7447448 -0.55619955 -0.62044775 -0.47148204 0.48797646 0.8145072 0.4340123 -0.21970923 -1.3764734
to -0.45181373 -0.4650075 -0.20284238 -0.27781203 1.4314226 -1.72632 -1.0440687 -0.1579427 -3.0835633 -0.9751956 1.8891466 0.5389687 -1.3734171 0.48211348 -0.52438635 -1.0448132 -2.1532762 -0.18867615 0.57418245 -0.08365804 1.0000584 -0.70980537 -0.6058601 -0.2861929 -1.7322166 1.1654952 -0.047571447 -1.0624695 -0.47716987 -0.4453044 1.0262771 1.0086297 -0.15216482 1.3208487 0.66874176 -0.26126635 -0.6687273 -1.0843731 0.26966643 0.1602182 -0.47425827 0.16670395 1.5098029 -0.11067801 -0.6992604 0.4529366 0.24493226 1.5403475 1.434339 0.2867312 -0.52424604 -1.7442083 1.9527359 -0.042146772 -2.185514 0.0313559 -2.2059205 0.3527411 -0.697543 -1.0767257 -0.8588456 -0.22021617 1.1373316 1.212271 -0.029159741 -0.7894273 0.49521762 -1.07387 -1.152198 1.1631436 1.2950479 -0.33203518 -0.1656117 -1.208777 -0.8823485 -1.3217396 -0.44400996 0.67206293 0.13265511 2.6302767 -1.4111571 -0.60926694 0.6679624 -0.8873943 0.71835214 -0.12927383 -1.0296762 1.8741252 -0.68068063 0.54899734 -0.5579233 -0.011663338 -1.5236337 1.4204128 -0.6213284 0.45027944 0.46631104 -0.3493377 1.2036678 -1.3370291 -0.06624356 -2.0774438 -1.6533544 -0.34814546 -1.417539 -0.63914627 -0.29217276 -0.21968229 -0.28291848 -0.3298413 -0.5949784 -0.8732536 -0.32291853 0.32853234 -2.83302 0.9246789 0.59738594 0.4497377 0.5191395 -1.0308914 0.6020418 1.152935 -1.0907665 -0.31280938 0.6763505 0.09588082 0.8348368 -1.7086419 1.0288812 0.02070321 1.1589805 -0.61018115 -1.6733575 1.0314646 -0.03443941 -0.38043025 1.8563181 1.5773381 -0.5357392 1.2327367 0.27064085 -0.27840465 0.62414604 0.84376675 2.0225794 1.5380586 0.29858705 -0.33114535 -0.509956 -0.008125049 0.0057706754 0.68166906 0.7245259 -1.5561162 0.31252217 1.0354787 -0.27429792 0.23225328 1.1980672 0.87397546 0.5976887 -1.9743503 -0.48235884 -1.1353315 0.97659653 -1.8449668 0.22400872 2.5024884 -1.7386283 1.5728022 -0.96217394 -1.6303239 1.5314237 0.9182766 -0.24417917 -1.4371163 0.07911552 -0.32532609 0.8728153 -0.81520844 -0.23567423 -0.44668564 1.4797436 0.6502067 -0.5101441 -1.5946329 -0.1163486 -1.0311097 -0.7688296 -0.9098649 1.0373703 0.7030389 -0.5664221 0.59986746 1.0906467 0.2331473 -0.5300512 -1.2647263 0.19322094 0.6450024 -1.5187635 -0.7005129 0.039846152 -0.732089 -1.9241922 0.20498496 -0.3788318 1.250152 1.7358007 1.6915574 -0.2803546 -1.7517993 1.2509416 0.9040496 0.2889055 0.4726743 -1.8756129 2.1315434 -1.6146554 1.2169014 0.18417788 0.80557656 0.9174113 0.69395715 0.4543055 -1.3323944 -0.7776816 -0.14757073 0.9150668 0.943469 0.24570529 0.23355637 0.036555905 1.1619599 0.39814597 -1.4475336 0.5911764 0.5694386 0.16479817 0.69210273 -0.8521724 -0.7287377 -0.29385588 -1.6419904 -1.2288016 0.94826347 1.241151 -0.7985145 -1.675282 0.4152975 -1.0201335 1.5933558 0.36852553 0.646892 -0.5347478 -0.14094235 -0.83682305 1.6767046 0.540443 0.4661739 -0.17864095 1.5410078 -2.0879383 1.5091672 0.6611476 0.27279305 -0.28335723 -0.6995227 0.68113476 2.1906176 0.5142258 0.92491084 1.284418 1.4684578 -0.94452524 -0.9425771 -1.3811619 -0.4775727 1.1225742 0.9868723 -1.0443727 1.3065931 -0.56007695 0.08280821 0.8513013 1.0737045 0.34018803 0.9867777 -1.051579 -0.8681096 1.1627613 -1.4936631 0.7199018 -1.4331347 -1.3862375 0.338965 0.29738507 1.7313238 1.2775272 -1.1055841
a -1.0073928 -0.7161589 -0.11105695 0.48562127 0.43826267 0.50799567 -1.160234 -0.28310013 -0.83328813 0.21359071 2.2065818 -1.5286056 0.8525085 -0.68588924 0.2751325 -0.78892726 0.109805144 -1.338428 1.6868956 -1.2819483 0.6778753 -1.3757133 -0.027107533 0.8474739 -2.791885 0.854242 0.32688043 -0.97662544 0.9639976 -0.6637536 -0.4792468 0.1845321 0.7021455 -1.1293317 -0.20202447 1.2642249 -0.97153187 0.37692502 0.72586626 0.3384956 -0.08671066 -0.25167495 -0.004641602 -0.06991217 -1.1123223 -1.3586555 -0.67405915 0.26494098 -1.1675577 0.42941314 -0.5923032 -1.1803614 0.4242341 0.90700126 -1.7951177 1.0661069 -0.6949491 0.6996416 0.85190046 0.29770723 0.024375953 0.15346949 -0.38568264 0.8191094 0.39375693 0.6331995 -0.026716465 1.9185622 -0.30011466 1.5012833 -0.4648421 0.7347693 0.18774141 -0.4788123 0.79810774 -0.8841982 0.52579844 -0.46921057 0.99309915 -0.6634828 -0.6277023 -0.18223068 -0.1484723 0.8330233 0.1295556 0.2132923 0.76638174 0.060398567 1.416334 0.57461995 -2.829192 0.8730293 2.2298741 0.19960466 -0.85285556 -0.45080394 1.876439 0.3844447 1.4857415 -1.6776185 0.008306519 0.008541163 0.46428135 -0.34010157 -0.29104546 -0.6216658 -0.09796046 0.50689715 1.3491005 0.8931317 -1.514054 -0.10600644 0.5220622 -1.916398 -0.9101734 0.6053878 1.9823531 -0.14860632 0.1552027 -0.6782312 0.7158105 0.45625088 0.10668884 0.21941331 0.34918368 2.4178853 -0.10396795 -0.9627657 0.15620112 2.3566496 0.24051109 -1.8730069 -1.5939002 1.4907279 -1.9735546 -0.74198854 0.1125128 -0.09225831 1.9436761 -0.0856586 0.94478375 3.0877779 -0.4147592 -2.5261455 3.1408958 1.0980152 0.8772077 0.54009664 0.9488787 -1.8115172 0.02788427 -3.1261594 0.4534053 0.05014893 0.8953117 0.37976888 -0.81014025 0.55652744 -0.79056644 -0.38363725 0.5195088 0.39411572 -1.0761557 0.48244476 2.3022969 1.1829541 2.0681486 0.92108727 -0.78641385 0.92282194 0.16807017 0.8539634 1.3518713 0.15159112 1.260106 -0.34245673 1.3851815 -0.67719334 -0.36256662 -1.1854736 -0.020926658 -0.06675662 0.62036395 0.06602091 -0.52343845 1.500189 -0.4639383 -0.8533546 -0.8513407 -0.41783187 0.9801242 0.36726144 -2.2773488 1.3877021 0.15175806 -0.8038806 -0.57182926 0.34938148 0.30888548 0.89052176 0.01436247 0.4888836 -0.17409424 -1.1861744 -1.1007463 0.86980176 0.55880374 -0.49684983 1.0694454 0.46804538 -1.2402518 -0.039052676 0.47044155 -0.89260733 -0.37588298 -0.7041043 -0.58853036 2.0269601 0.60264826 0.52476937 0.11735158 0.6355479 1.1031203 -0.23352645 0.3343605 -1.722852 -0.6740646 -0.19566311 0.8997927 -0.6373163 2.982529 -0.69170517 2.0576038 2.0641613 -1.3024143 -1.4899768 0.02787708 -1.0667732 0.62666786 1.1205273 -0.8110429 -2.0835826 -0.7901075 0.28606093 -0.45869833 0.013301568 -0.50920856 -0.9447109 0.32275513 1.3133056 -0.68694335 0.6732523 -0.2258651 0.7720044 1.3197469 -1.8079388 0.18857074 0.43317777 -1.4220333 0.4353006 -0.91216135 0.33228484 -1.5195048 0.017804056 -0.75719404 1.4863076 -0.24387665 0.20472623 -0.31214944 0.84046245 0.84668887 1.263284 0.883803 -0.0548799 0.3203207 0.40882677 -0.9157336 1.1682459 0.79698867 1.8183719 -0.49106228 -1.1822014 0.31694895 1.4582168 -0.83364105 0.54057735 -0.98914325 0.8537844 -0.88367474 0.15588704 0.029684333 -1.902695 0.45150423 -0.18033023 -0.37843224 1.3331733 -0.92970484 1.7076486 -0.22264582 0.48354834
