6 200
</s> 0.16322 -0.36765 0.20026 -0.12489 0.08388 0.13982 0.15008 -0.053773 -0.06137 -0.0045065 -0.58314 0.24782 0.092504 0.067837 -0.21078 -0.31393 0.14422 -0.27795 -0.1344 0.4213 0.21266 -0.085614 -0.054192 0.21823 -0.17482 -0.22869 0.15952 -0.33979 -0.46413 0.38072 -0.49132 -0.35368 -0.097496 0.32636 -0.48281 -0.25214 0.12512 -0.21495 0.048611 0.30692 0.29196 0.19878 -0.078944 -0.031006 -0.1372 0.023452 -0.072065 0.20168 -0.3926 -0.21008 0.058432 -0.23863 -0.021832 -0.021324 -0.02343 0.31905 -0.019679 0.076354 -0.24135 0.28567 -0.069566 -0.29807 0.20537 0.069479 -0.26 0.093642 0.43192 0.23391 0.10825 0.023609 -0.36739 0.20845 -0.14169 0.12515 -0.039979 0.33906 0.022143 -0.18001 0.21008 -0.066248 -0.26103 0.13291 -0.13262 -0.13941 0.26471 -0.20952 -0.10995 0.0051894 0.093992 -0.3677 0.18325 0.0014169 -0.15486 -0.2253 -0.047111 -0.049075 -0.088496 0.20234 -0.13282 -0.015551 -0.75273 0.26202 -0.2021 0.047972 -0.1797 0.16444 -0.089377 -0.18533 0.1464 -0.11816 0.35824 0.08461 -0.34249 -0.20287 0.0067803 0.14301 0.1174 -0.11889 0.030052 -0.23964 0.061164 0.10555 0.227 -0.079181 -0.2711 0.10286 -0.18119 -0.097694 -0.40646 -0.21073 -0.078354 -0.23937 0.17886 0.50711 0.14295 -0.13066 -0.23767 -0.42073 -0.0933 0.18469 -0.18269 -0.15634 -0.29244 -0.15856 0.23105 -0.084461 0.01692 -0.19097 -0.27432 0.4222 -0.02952 -0.47861 0.19146 0.27751 -0.21752 0.061562 0.27532 0.010653 0.087068 0.0092718 -0.36574 0.4343 -0.076556 0.098917 -0.4534 0.019821 -0.13637 -0.20327 0.060436 0.048771 0.053866 0.39061 0.016295 -0.045598 -0.12422 -0.022192 -0.23694 -0.16152 0.233 0.29372 -0.021996 -0.014359 0.23627 -0.072358 0.024848 -0.10063 -0.13753 0.0028508 0.09537 0.14741 -0.081083 -0.31324 -0.10952 -0.26632 0.11913 -0.22687 0.038233 -0.13612 -0.2219 -0.21338
the -0.39153 -0.19803 0.2573 -0.18617 0.25551 0.29107 0.097123 -0.21534 0.2504 0.044763 -0.60024 -0.0014408 0.10361 -0.08827 -0.35619 -0.24639 0.2759 -0.29493 0.11766 0.23671 0.096448 0.11668 -0.028737 0.22029 -0.28159 -0.18961 0.14025 -0.088037 -0.34506 0.14727 0.1388 -0.2586 0.050671 0.11825 -0.20013 -0.19365 -0.015928 0.21992 -0.031344 0.12979 0.19733 -0.038447 -0.080979 0.33436 -0.1991 0.050382 0.31181 0.19662 -0.089954 -0.14884 -0.17812 -0.076496 0.087249 -0.025438 0.052094 0.45936 -0.18358 -0.10534 -0.020319 0.20621 -0.32203 -0.12879 0.012163 0.15624 0.1755 -0.05403 -0.20659 0.19917 0.025132 -0.14976 -0.3795 -0.20649 0.13717 0.022387 -0.056131 -0.080748 0.12477 -0.087253 0.32264 0.085159 -0.13349 -0.036732 0.21793 -0.037009 0.076314 -0.16719 -0.11717 -0.32689 0.091538 -0.13114 0.075356 0.22953 0.2619 -0.024123 0.20296 0.072261 -0.0083826 -0.13424 0.037474 0.20263 -0.37046 0.14122 0.0033072 0.12462 -0.33441 0.31185 -0.051931 0.20365 0.0060779 -0.02726 0.12184 -0.26957 -0.20655 0.098811 -0.089109 -0.28651 0.12249 -0.0031689 -0.31205 -0.14299 -0.16751 0.0405 0.1276 -0.053849 -0.04967 0.30653 -0.20608 0.066896 -0.122 -0.13435 -0.092652 -0.12004 -0.11884 0.029962 0.00011093 -0.12313 0.072465 0.083175 0.045595 -0.14075 -0.19036 -0.29867 0.15324 -0.13448 -0.031083 0.080242 -0.02606 -0.085573 -0.18595 0.090694 0.13601 -0.20994 0.056018 0.29838 -0.24876 0.16682 0.40346 -0.082325 -0.12823 -0.24379 0.013463 -0.093459 0.18699 -0.20523 0.11279 -0.11162 -0.087238 -0.12498 0.1482 -0.12327 0.061981 0.028047 0.1598 -0.41327 0.064532 0.12089 -0.29545 0.18866 -0.035448 -0.0010943 -0.27418 0.078652 0.41253 -0.088766 0.18426 -0.045978 0.2597 -0.27282 -0.050638 -0.0050926 -0.18146 -0.061129 -0.2997 0.20046 0.27482 -0.15815 0.18284 0.064662 -0.0096386 -0.21162
to -0.19776 0.047666 0.28138 -0.18371 0.28204 0.35684 -0.089933 -0.19276 0.091682 -0.057824 -0.48462 -0.020364 -0.0020358 -0.10032 -0.2188 -0.23677 -0.036677 -0.16118 -0.061385 0.36766 -0.097301 -0.12333 -0.10323 0.15527 -0.27661 0.017679 0.047426 -0.28925 -0.25585 0.18491 -0.39136 -0.12551 -0.15419 -0.055675 -0.28988 -0.14127 0.098132 0.04671 0.088591 0.093 0.33803 0.11714 0.055353 0.39645 -0.001796 -0.11699 0.14613 0.14378 -0.020759 0.076509 -0.20281 0.039524 -0.13735 -0.088576 0.089851 0.3969 -0.077352 0.17632 -0.16647 0.071303 -0.43311 -0.3229 0.084844 0.023107 0.1104 0.061339 -0.12953 -0.01548 0.1027 0.0042956 -0.44188 -0.17821 0.047074 -0.33085 -0.25776 -0.12218 0.003809 -0.36818 0.3395 0.089592 -0.029934 -0.05311 0.062275 0.13263 -0.079112 -0.043011 -0.093506 -0.096397 -0.046115 -0.1442 0.13907 0.15898 0.42303 -0.16182 -0.13232 0.15216 -0.21919 0.081173 -0.25128 0.28666 -0.46392 0.12152 0.12923 0.08875 -0.25425 0.15914 -0.31586 0.064466 0.088573 -0.090814 0.28984 -0.24283 -0.18699 -0.059915 0.04795 0.15071 0.24386 -0.041857 -0.23549 -0.1712 -0.45095 -0.021153 0.26879 0.20076 -0.31857 0.21865 -0.029873 -0.00015035 -0.13791 0.029965 -0.2886 -0.13451 0.10965 0.050945 -0.16884 0.075614 0.04201 -0.15138 0.072846 0.012078 -0.20378 -0.49824 0.10078 0.079774 0.053436 0.1201 0.41045 -0.021509 -0.1325 0.25642 0.011585 -0.31703 -0.047985 0.26936 -0.32732 0.34312 0.26341 0.040868 0.10741 -0.23439 -0.19963 0.068024 0.051171 0.049706 0.18093 -0.2853 -0.11866 -0.16614 0.22375 -0.09406 -0.21385 0.056575 0.073764 -0.12857 -0.062663 -0.21334 -0.16452 -0.0034856 0.10337 0.00016227 -0.0038792 0.031892 0.37669 -0.022702 0.11426 0.041606 -0.11478 -0.061774 -0.19227 0.1967 0.010612 -0.20014 -0.23586 0.15899 0.14193 -0.079183 0.23623 0.013149 -0.17756 -0.24193
and -0.26861 0.0755 0.25665 -0.20097 0.22401 0.32482 0.015268 -0.22384 0.078968 0.067586 -0.29105 -0.27603 0.1361 0.099296 -0.35846 -0.36188 0.051697 0.0094726 0.07815 -0.069505 -0.075571 0.21961 0.29763 0.16193 0.04361 -0.15108 0.016338 -0.18766 -0.1431 0.19818 -0.056033 -0.013904 -0.17564 -0.1852 -0.13247 -0.43865 -0.083463 0.013526 -0.049633 -0.13374 0.26574 -0.1607 0.047784 0.18218 0.24047 0.043843 0.17408 0.24006 -0.031685 -0.13195 -0.031457 0.020955 0.14699 -0.14592 -0.051113 0.24839 -0.12372 0.08455 -0.12863 0.10885 -0.38447 -0.14899 0.14166 0.045197 0.19649 0.067566 -0.14691 0.22396 0.316 -0.061884 -0.35496 -0.021401 0.049955 -0.00039163 -0.19615 0.01075 -0.0097021 -0.099914 0.22166 -0.06297 -0.055783 0.12164 0.052164 -0.048072 -0.02746 -0.020687 0.029613 -0.036119 0.092549 -0.036987 0.21374 0.14966 0.28372 -0.11372 0.088272 0.095649 -0.10632 -0.13163 0.028625 0.19494 -0.10678 -0.045252 0.053394 -0.05715 -0.034279 0.12683 -0.14876 0.062273 0.017078 -0.051244 0.022775 -0.2233 -0.24094 -0.048548 0.0072517 0.075189 0.12837 0.085418 -0.32651 -0.274 -0.31864 0.092427 0.40591 -0.26016 -0.232 0.13051 -0.069518 0.0021892 -0.11873 -0.32451 -0.13205 -0.18886 -0.034258 -0.0098447 -0.26374 0.068588 0.076429 0.081615 0.15739 0.0080626 -0.19654 -0.38666 -0.2155 -0.23355 -0.1819 -0.073613 0.088708 -0.10007 -0.1343 0.0057437 -0.093865 -0.24759 0.13724 0.2617 -0.24127 0.30429 0.42023 0.036003 0.15883 -0.35831 -0.10331 0.19556 0.20096 0.08079 0.18985 -0.09391 -0.14067 -0.10373 0.21934 -0.12935 -0.051105 -0.027035 0.12366 -0.19199 -0.12394 0.086602 -0.2787 -0.023126 -0.098682 -0.015392 -0.033926 0.076405 0.12345 -0.0074219 0.042701 0.052234 0.057554 -0.15364 -0.080271 0.071226 0.098136 -0.084384 0.014115 0.16206 0.01495 0.11513 0.14582 0.15572 -0.060762 0.19229
a -0.099258 -0.046465 0.23546 -0.10014 0.22648 0.097369 0.011487 -0.37918 -0.03958 0.0029719 -0.091787 0.1697 -0.08537 0.035334 -0.27301 -0.20529 0.20433 0.080066 -0.1045 0.19113 -0.18956 0.18521 -0.095885 -0.0059507 -0.064498 0.021165 0.22534 -0.53594 -0.55134 0.11625 0.11204 0.054659 0.011879 0.27201 -0.10719 0.038785 0.041897 0.15519 0.23709 -0.037647 0.086904 0.090548 -0.033434 0.25591 0.041508 0.041713 0.20732 0.064958 -0.021243 -0.18968 -0.28298 0.15378 -0.042579 0.055335 -0.053205 0.10698 -0.24211 -0.1473 -0.45741 0.13119 -0.026014 -0.27683 0.15843 0.15962 0.20676 -0.12632 -0.22898 -0.035481 0.012822 -0.061005 -0.4797 0.013183 -0.036269 0.21233 0.022714 0.19436 0.046365 -0.084471 0.19781 -0.13025 -0.026552 -0.12672 0.10878 0.016461 0.041334 -0.10427 -0.087528 -0.04946 -0.15854 -0.33805 0.32467 0.033728 0.52216 0.0048923 -0.24106 -0.17848 -0.20542 0.21677 0.07284 0.26506 -0.024466 0.0098609 0.27859 -0.13631 -0.28138 0.23768 -0.31531 -0.010093 0.037016 -0.13979 -0.19817 0.017982 -0.33504 -0.049935 -0.05159 -0.073734 0.15535 0.14561 -0.00020164 -0.097436 -0.19431 0.19191 0.080767 -0.099018 -0.1309 0.31058 -0.188 -0.19894 -0.21517 -0.10267 0.16238 -0.26133 -0.3762 0.19184 0.056951 -0.089066 0.14952 -0.10061 0.35455 -0.16445 -0.26225 -0.51143 0.20533 0.066846 0.084021 -0.019128 -0.13415 -0.061221 -0.20519 0.35322 0.091355 -0.43471 0.088797 0.36292 -0.052869 0.45244 0.18208 -0.094911 -0.012324 -0.20897 -0.16322 0.020465 0.41782 -0.0046948 0.079992 0.10754 -0.30898 0.025396 0.076417 -0.060091 0.1315 -0.003649 -0.0039058 -0.33235 -0.1483 -0.1762 0.15022 0.10452 -0.089166 0.33893 0.051173 -0.091152 0.45366 -0.29202 0.074132 -0.08126 0.21599 -0.15971 0.043012 0.25175 -0.13403 -0.3438 -0.16488 0.0961 0.18212 -0.11161 0.25745 0.013508 0.065945 -0.45863
I -0.039575 -0.11011 0.14779 -0.22566 0.061617 0.22328 0.12238 -0.03138 0.055645 0.083989 -0.40808 -0.083508 0.078212 0.063669 -0.10828 -0.40748 -0.23324 0.0036013 -0.34119 0.13999 -0.23542 -0.18627 0.11431 -0.0087356 0.16891 0.043971 0.076546 -0.12714 -0.30249 -0.028765 0.15003 0.065354 0.087966 -0.12629 -0.0029991 -0.085184 0.0262 -0.059037 0.11638 -0.071546 -0.00089797 -0.01869 0.058032 0.23433 0.21267 0.034734 -0.055785 0.31068 -0.28584 -0.044956 -0.22046 -0.11995 -0.064684 0.045738 0.15935 -0.038295 -0.027574 0.10534 0.096378 0.12977 -0.19653 -0.057682 0.17127 -0.052615 0.056557 0.016038 -0.14265 0.41115 -0.038623 0.20576 -0.42157 0.054199 0.35969 0.14522 -0.068505 -0.073055 0.22124 0.24684 0.52646 -0.1137 -0.29925 0.25468 0.14153 0.10422 0.12689 -0.12616 -0.22627 -0.071346 -0.084196 -0.093879 0.31 0.052327 0.57288 -0.37521 -0.064842 0.010579 -0.062809 0.023659 -0.12171 -0.081587 -0.40889 -0.071099 0.40267 -0.2514 -0.025893 -0.014221 -0.12561 0.059768 -0.17813 -0.071557 0.13904 0.053538 -0.1334 -0.11217 0.02169 -0.041853 -0.013413 0.060011 -0.084078 -0.08134 -0.14503 -0.021676 0.089314 0.10955 -0.30701 0.04482 0.010195 -0.13885 -0.11076 0.055058 0.13213 0.065287 -0.037295 0.15465 0.15867 0.41873 0.23003 -0.039358 -0.083533 0.12534 0.011373 -0.20573 0.0063719 -0.18077 0.1274 -0.2173 -0.039086 0.047895 0.041463 0.21856 -0.066804 -0.25425 -0.0051097 -0.10914 0.24825 0.27131 0.1106 -0.15679 0.060544 -0.12622 -0.10387 -0.025095 0.33286 0.17119 -0.1016 -0.091057 -0.079025 0.1837 0.074289 0.026693 0.11811 0.099036 0.1867 -0.11761 -0.1911 0.080835 -0.15005 -0.12557 0.34031 -0.14988 -0.06578 0.045214 0.22515 0.15699 0.35204 0.20596 0.19819 -0.1945 0.13444 0.20285 0.052318 0.21325 0.014836 0.15106 0.1308 0.021602 0.38374 0.044496 0.045973 -0.10342
